digraph Tree {
node [shape=box, fontname="helvetica"] ;
edge [fontname="helvetica"] ;
0 [label="danceability <= 0.738\ngini = 0.66\nsamples = 10\nvalue = [3, 4, 3]"] ;
1 [label="acousticness <= 0.543\ngini = 0.612\nsamples = 7\nvalue = [3, 1, 3]"] ;
0 -> 1 [labeldistance=2.5, labelangle=45, headlabel="True"] ;
2 [label="danceability <= 0.715\ngini = 0.56\nsamples = 5\nvalue = [3, 1, 1]"] ;
1 -> 2 ;
3 [label="key <= 2.5\ngini = 0.375\nsamples = 4\nvalue = [3, 1, 0]"] ;
2 -> 3 ;
4 [label="gini = 0.0\nsamples = 1\nvalue = [0, 1, 0]"] ;
3 -> 4 ;
5 [label="gini = 0.0\nsamples = 3\nvalue = [3, 0, 0]"] ;
3 -> 5 ;
6 [label="gini = 0.0\nsamples = 1\nvalue = [0, 0, 1]"] ;
2 -> 6 ;
7 [label="gini = 0.0\nsamples = 2\nvalue = [0, 0, 2]"] ;
1 -> 7 ;
8 [label="gini = 0.0\nsamples = 3\nvalue = [0, 3, 0]"] ;
0 -> 8 [labeldistance=2.5, labelangle=-45, headlabel="False"] ;
}